SNNS network definition file V1.4-3D
generated at Mon Jan 23 22:52:37 2017

network name : default
source files :
no. of units : 102
no. of connections : 200
no. of unit types : 0
no. of site types : 0


learning function : Kohonen
update function   : Kohonen_Order


unit default section :

act      | bias     | st | subnet | layer | act func     | out func
---------|----------|----|--------|-------|--------------|-------------
 0.00000 |  0.00000 | h  |      0 |     1 | Act_Logistic | Out_Identity 
---------|----------|----|--------|-------|--------------|-------------


unit definition section :

no. | typeName | unitName | act      | bias     | st | position | act func | out func | sites
----|----------|----------|----------|----------|----|----------|----------|----------|-------
  1 |          | Wektor   |  1.00000 |  0.00000 | i  |  2, 7, 1 |||
  2 |          | Wektor   |  1.00000 |  0.00000 | i  |  2, 9, 1 |||
  3 |          | noName   |  0.00000 |  0.00000 | h  |  9, 3, 1 |||
  4 |          | noName   |  0.00000 |  0.00000 | h  | 10, 3, 1 |||
  5 |          | noName   |  0.00000 |  3.00000 | h  | 11, 3, 1 |||
  6 |          | noName   |  0.00000 |  0.00000 | h  | 12, 3, 1 |||
  7 |          | noName   |  1.00000 | 199.00000 | h  | 13, 3, 1 |||
  8 |          | noName   |  0.00000 | 87.00000 | h  | 14, 3, 1 |||
  9 |          | noName   |  0.00000 |  0.00000 | h  | 15, 3, 1 |||
 10 |          | noName   |  0.00000 |  0.00000 | h  | 16, 3, 1 |||
 11 |          | noName   |  0.00000 |  0.00000 | h  | 17, 3, 1 |||
 12 |          | noName   |  0.00000 |  0.00000 | h  | 18, 3, 1 |||
 13 |          | noName   |  0.00000 |  0.00000 | h  |  9, 4, 1 |||
 14 |          | noName   |  0.00000 |  0.00000 | h  | 10, 4, 1 |||
 15 |          | noName   |  0.00000 |  0.00000 | h  | 11, 4, 1 |||
 16 |          | noName   |  0.00000 |  1.00000 | h  | 12, 4, 1 |||
 17 |          | noName   |  0.00000 |  0.00000 | h  | 13, 4, 1 |||
 18 |          | noName   |  0.00000 |  0.00000 | h  | 14, 4, 1 |||
 19 |          | noName   |  0.00000 |  1.00000 | h  | 15, 4, 1 |||
 20 |          | noName   |  0.00000 |  0.00000 | h  | 16, 4, 1 |||
 21 |          | noName   |  0.00000 |  0.00000 | h  | 17, 4, 1 |||
 22 |          | noName   |  0.00000 |  0.00000 | h  | 18, 4, 1 |||
 23 |          | noName   |  0.00000 |  0.00000 | h  |  9, 5, 1 |||
 24 |          | noName   |  0.00000 |  0.00000 | h  | 10, 5, 1 |||
 25 |          | noName   |  0.00000 |  0.00000 | h  | 11, 5, 1 |||
 26 |          | noName   |  0.00000 |  0.00000 | h  | 12, 5, 1 |||
 27 |          | noName   |  0.00000 |  0.00000 | h  | 13, 5, 1 |||
 28 |          | noName   |  0.00000 |  0.00000 | h  | 14, 5, 1 |||
 29 |          | noName   |  0.00000 | 87.00000 | h  | 15, 5, 1 |||
 30 |          | noName   |  0.00000 |  0.00000 | h  | 16, 5, 1 |||
 31 |          | noName   |  0.00000 |  0.00000 | h  | 17, 5, 1 |||
 32 |          | noName   |  0.00000 |  0.00000 | h  | 18, 5, 1 |||
 33 |          | noName   |  0.00000 |  0.00000 | h  |  9, 6, 1 |||
 34 |          | noName   |  0.00000 |  0.00000 | h  | 10, 6, 1 |||
 35 |          | noName   |  0.00000 |  0.00000 | h  | 11, 6, 1 |||
 36 |          | noName   |  0.00000 |  0.00000 | h  | 12, 6, 1 |||
 37 |          | noName   |  0.00000 |  0.00000 | h  | 13, 6, 1 |||
 38 |          | noName   |  0.00000 |  0.00000 | h  | 14, 6, 1 |||
 39 |          | noName   |  0.00000 |  0.00000 | h  | 15, 6, 1 |||
 40 |          | noName   |  0.00000 | 10.00000 | h  | 16, 6, 1 |||
 41 |          | noName   |  0.00000 |  0.00000 | h  | 17, 6, 1 |||
 42 |          | noName   |  0.00000 |  0.00000 | h  | 18, 6, 1 |||
 43 |          | noName   |  0.00000 |  0.00000 | h  |  9, 7, 1 |||
 44 |          | noName   |  0.00000 |  0.00000 | h  | 10, 7, 1 |||
 45 |          | noName   |  0.00000 |  0.00000 | h  | 11, 7, 1 |||
 46 |          | noName   |  0.00000 |  0.00000 | h  | 12, 7, 1 |||
 47 |          | noName   |  0.00000 |  1.00000 | h  | 13, 7, 1 |||
 48 |          | noName   |  0.00000 |  0.00000 | h  | 14, 7, 1 |||
 49 |          | noName   |  0.00000 |  1.00000 | h  | 15, 7, 1 |||
 50 |          | noName   |  0.00000 |  0.00000 | h  | 16, 7, 1 |||
 51 |          | noName   |  0.00000 |  0.00000 | h  | 17, 7, 1 |||
 52 |          | noName   |  0.00000 |  0.00000 | h  | 18, 7, 1 |||
 53 |          | noName   |  0.00000 |  0.00000 | h  |  9, 8, 1 |||
 54 |          | noName   |  0.00000 |  1.00000 | h  | 10, 8, 1 |||
 55 |          | noName   |  0.00000 |  1.00000 | h  | 11, 8, 1 |||
 56 |          | noName   |  0.00000 |  0.00000 | h  | 12, 8, 1 |||
 57 |          | noName   |  0.00000 |  0.00000 | h  | 13, 8, 1 |||
 58 |          | noName   |  0.00000 |  0.00000 | h  | 14, 8, 1 |||
 59 |          | noName   |  0.00000 |  0.00000 | h  | 15, 8, 1 |||
 60 |          | noName   |  0.00000 |  0.00000 | h  | 16, 8, 1 |||
 61 |          | noName   |  0.00000 |  0.00000 | h  | 17, 8, 1 |||
 62 |          | noName   |  0.00000 |  0.00000 | h  | 18, 8, 1 |||
 63 |          | noName   |  0.00000 |  0.00000 | h  |  9, 9, 1 |||
 64 |          | noName   |  0.00000 |  0.00000 | h  | 10, 9, 1 |||
 65 |          | noName   |  0.00000 |  0.00000 | h  | 11, 9, 1 |||
 66 |          | noName   |  0.00000 | 297.00000 | h  | 12, 9, 1 |||
 67 |          | noName   |  0.00000 |  0.00000 | h  | 13, 9, 1 |||
 68 |          | noName   |  0.00000 |  0.00000 | h  | 14, 9, 1 |||
 69 |          | noName   |  0.00000 |  0.00000 | h  | 15, 9, 1 |||
 70 |          | noName   |  0.00000 |  0.00000 | h  | 16, 9, 1 |||
 71 |          | noName   |  0.00000 |  0.00000 | h  | 17, 9, 1 |||
 72 |          | noName   |  0.00000 |  0.00000 | h  | 18, 9, 1 |||
 73 |          | noName   |  0.00000 |  0.00000 | h  |  9,10, 1 |||
 74 |          | noName   |  0.00000 |  0.00000 | h  | 10,10, 1 |||
 75 |          | noName   |  0.00000 |  0.00000 | h  | 11,10, 1 |||
 76 |          | noName   |  0.00000 |  0.00000 | h  | 12,10, 1 |||
 77 |          | noName   |  0.00000 |  0.00000 | h  | 13,10, 1 |||
 78 |          | noName   |  0.00000 |  0.00000 | h  | 14,10, 1 |||
 79 |          | noName   |  0.00000 |  0.00000 | h  | 15,10, 1 |||
 80 |          | noName   |  0.00000 |  0.00000 | h  | 16,10, 1 |||
 81 |          | noName   |  0.00000 |  0.00000 | h  | 17,10, 1 |||
 82 |          | noName   |  0.00000 |  0.00000 | h  | 18,10, 1 |||
 83 |          | noName   |  0.00000 | 297.00000 | h  |  9,11, 1 |||
 84 |          | noName   |  0.00000 |  0.00000 | h  | 10,11, 1 |||
 85 |          | noName   |  0.00000 |  0.00000 | h  | 11,11, 1 |||
 86 |          | noName   |  0.00000 |  0.00000 | h  | 12,11, 1 |||
 87 |          | noName   |  0.00000 |  0.00000 | h  | 13,11, 1 |||
 88 |          | noName   |  0.00000 |  0.00000 | h  | 14,11, 1 |||
 89 |          | noName   |  0.00000 |  0.00000 | h  | 15,11, 1 |||
 90 |          | noName   |  0.00000 |  0.00000 | h  | 16,11, 1 |||
 91 |          | noName   |  0.00000 |  1.00000 | h  | 17,11, 1 |||
 92 |          | noName   |  0.00000 | 209.00000 | h  | 18,11, 1 |||
 93 |          | noName   |  0.00000 |  0.00000 | h  |  9,12, 1 |||
 94 |          | noName   |  0.00000 |  3.00000 | h  | 10,12, 1 |||
 95 |          | noName   |  0.00000 |  0.00000 | h  | 11,12, 1 |||
 96 |          | noName   |  0.00000 |  0.00000 | h  | 12,12, 1 |||
 97 |          | noName   |  0.00000 |  0.00000 | h  | 13,12, 1 |||
 98 |          | noName   |  0.00000 |  0.00000 | h  | 14,12, 1 |||
 99 |          | noName   |  0.00000 |  1.00000 | h  | 15,12, 1 |||
100 |          | noName   |  0.00000 |  0.00000 | h  | 16,12, 1 |||
101 |          | noName   |  0.00000 |  0.00000 | h  | 17,12, 1 |||
102 |          | noName   |  0.00000 |  0.00000 | h  | 18,12, 1 |||
----|----------|----------|----------|----------|----|----------|----------|----------|-------


connection definition section :

target | site | source:weight
-------|------|----------------------------------------------------------------------------------------------------------------
     3 |      |   2: 0.99599,   1: 0.08951
     4 |      |   2:-0.14488,   1: 0.98945
     5 |      |   2:-0.00786,   1:-0.99997
     6 |      |   2:-0.38611,   1:-0.92245
     7 |      |   2:-0.70699,   1:-0.70723
     8 |      |   2:-0.71117,   1:-0.70302
     9 |      |   2:-0.55692,   1:-0.83057
    10 |      |   2:-0.98845,   1:-0.15158
    11 |      |   2: 0.56673,   1: 0.82390
    12 |      |   2:-0.66753,   1: 0.32609
    13 |      |   2:-0.17949,   1:-0.98376
    14 |      |   2: 0.83825,   1: 0.54529
    15 |      |   2:-0.82135,   1: 0.57043
    16 |      |   2: 0.75990,   1:-0.65004
    17 |      |   2:-0.74544,   1:-0.66657
    18 |      |   2:-0.51443,   1:-0.85753
    19 |      |   2:-0.48423,   1: 0.87494
    20 |      |   2: 0.75432,   1:-0.65651
    21 |      |   2:-0.62750,   1: 0.77862
    22 |      |   2:-0.34431,   1:-0.93886
    23 |      |   2:-0.59283,   1:-0.80532
    24 |      |   2:-0.57795,   1:-0.81607
    25 |      |   2: 0.59405,   1: 0.80443
    26 |      |   2:-0.30744,   1:-0.95157
    27 |      |   2:-0.44242,   1:-0.89681
    28 |      |   2:-0.20381,   1:-0.97901
    29 |      |   2:-0.94032,   1: 0.34030
    30 |      |   2:-0.13656,   1:-0.99063
    31 |      |   2:-0.93347,   1:-0.35866
    32 |      |   2:-0.12552,   1: 0.99209
    33 |      |   2:-0.49105,   1:-0.87113
    34 |      |   2:-0.03120,   1:-0.99951
    35 |      |   2: 0.00254,   1:-1.00000
    36 |      |   2:-0.62486,   1: 0.78073
    37 |      |   2:-0.98922,   1:-0.14646
    38 |      |   2: 0.75378,   1: 0.65713
    39 |      |   2: 0.33730,   1: 0.94140
    40 |      |   2:-0.88776,   1:-0.46031
    41 |      |   2:-0.40336,   1:-0.91504
    42 |      |   2: 0.77231,   1:-0.63524
    43 |      |   2: 0.18056,   1: 0.98356
    44 |      |   2: 0.92022,   1: 0.39140
    45 |      |   2: 0.30424,   1: 0.95259
    46 |      |   2: 0.49912,   1: 0.86653
    47 |      |   2: 0.15988,   1: 0.98714
    48 |      |   2: 0.44722,   1:-0.89442
    49 |      |   2:-0.75770,   1: 0.65260
    50 |      |   2:-0.54786,   1:-0.83657
    51 |      |   2:-0.93405,   1: 0.35716
    52 |      |   2:-0.88255,   1: 0.47022
    53 |      |   2:-0.96900,   1: 0.24708
    54 |      |   2: 0.14172,   1: 0.98991
    55 |      |   2: 0.51804,   1: 0.85536
    56 |      |   2: 0.71080,   1: 0.70339
    57 |      |   2: 0.61714,   1: 0.78685
    58 |      |   2:-0.08772,   1: 0.99615
    59 |      |   2: 0.80550,   1:-0.59260
    60 |      |   2:-0.94294,   1: 0.33296
    61 |      |   2: 0.94027,   1: 0.34042
    62 |      |   2:-0.58788,   1:-0.80894
    63 |      |   2:-0.97070,   1: 0.24028
    64 |      |   2: 0.64098,   1:-0.76756
    65 |      |   2:-0.39915,   1: 0.91688
    66 |      |   2: 0.70708,   1: 0.70713
    67 |      |   2: 0.60373,   1: 0.79719
    68 |      |   2: 0.97435,   1: 0.22502
    69 |      |   2:-0.95159,   1: 0.30738
    70 |      |   2: 0.03542,   1:-0.99937
    71 |      |   2: 0.23685,   1: 0.97155
    72 |      |   2:-0.94564,   1: 0.32522
    73 |      |   2: 0.71958,   1:-0.69441
    74 |      |   2: 0.08912,   1:-0.99602
    75 |      |   2: 0.84013,   1: 0.54239
    76 |      |   2: 0.73628,   1: 0.67668
    77 |      |   2: 0.75798,   1: 0.65228
    78 |      |   2: 0.72828,   1: 0.68528
    79 |      |   2:-0.11062,   1: 0.99386
    80 |      |   2:-0.03796,   1: 0.99928
    81 |      |   2:-0.47367,   1: 0.88070
    82 |      |   2:-0.71388,   1: 0.70027
    83 |      |   2: 0.70710,   1:-0.70711
    84 |      |   2: 0.83334,   1:-0.55276
    85 |      |   2:-0.29253,   1:-0.95626
    86 |      |   2: 0.78824,   1: 0.61537
    87 |      |   2: 0.65442,   1: 0.75613
    88 |      |   2: 0.48529,   1: 0.87436
    89 |      |   2: 0.49093,   1: 0.87120
    90 |      |   2:-0.37667,   1: 0.92635
    91 |      |   2:-0.96075,   1: 0.27742
    92 |      |   2:-0.70766,   1: 0.70656
    93 |      |   2: 0.69825,   1:-0.71585
    94 |      |   2: 0.60609,   1:-0.79540
    95 |      |   2: 0.86897,   1:-0.49486
    96 |      |   2:-0.48162,   1:-0.87638
    97 |      |   2: 0.06619,   1:-0.99781
    98 |      |   2: 0.86663,   1:-0.49895
    99 |      |   2: 0.77068,   1: 0.63722
   100 |      |   2:-0.58103,   1: 0.81389
   101 |      |   2:-0.72307,   1: 0.69077
   102 |      |   2:-0.67129,   1: 0.74119
-------|------|----------------------------------------------------------------------------------------------------------------


layer definition section :

layer | unitNo.
------|-----------------------------------------------------------------------------------------------------------------------------
    2 |   3,   4,   5,   6,   7,   8,   9,  10,  11,  12,  13,  14,  15,  16,  17,  18,  19,  20,  21,  22,  23,  24,  25,  26,  27,
         28,  29,  30,  31,  32,  33,  34,  35,  36,  37,  38,  39,  40,  41,  42,  43,  44,  45,  46,  47,  48,  49,  50,  51,  52,
         53,  54,  55,  56,  57,  58,  59,  60,  61,  62,  63,  64,  65,  66,  67,  68,  69,  70,  71,  72,  73,  74,  75,  76,  77,
         78,  79,  80,  81,  82,  83,  84,  85,  86,  87,  88,  89,  90,  91,  92,  93,  94,  95,  96,  97,  98,  99, 100, 101, 102
------|-----------------------------------------------------------------------------------------------------------------------------
