SNNS network definition file V1.4-3D
generated at Wed Jan 04 11:31:32 2017

network name : Projekt
source files :
no. of units : 51
no. of connections : 378
no. of unit types : 0
no. of site types : 0


learning function : Std_Backpropagation
update function   : Topological_Order


unit default section :

act      | bias     | st | subnet | layer | act func     | out func
---------|----------|----|--------|-------|--------------|-------------
 0.00000 |  0.00000 | h  |      0 |     1 | Act_Logistic | Out_Identity 
---------|----------|----|--------|-------|--------------|-------------


unit definition section :

no. | typeName | unitName  | act      | bias     | st | position | act func | out func | sites
----|----------|-----------|----------|----------|----|----------|----------|----------|-------
  1 |          | Input     |  0.00000 | -0.99750 | i  |  2, 1, 1 |||
  2 |          | Input     |  0.00000 |  0.12717 | i  |  3, 1, 1 |||
  3 |          | Input     |  0.00000 | -0.61339 | i  |  4, 1, 1 |||
  4 |          | Input     |  0.00000 |  0.61748 | i  |  5, 1, 1 |||
  5 |          | Input     |  0.00000 |  0.17002 | i  |  6, 1, 1 |||
  6 |          | Input     |  0.00000 | -0.04025 | i  |  7, 1, 1 |||
  7 |          | Input     |  1.00000 | -0.29942 | i  |  2, 2, 1 |||
  8 |          | Input     |  1.00000 |  0.79192 | i  |  3, 2, 1 |||
  9 |          | Input     |  1.00000 |  0.64568 | i  |  4, 2, 1 |||
 10 |          | Input     |  1.00000 |  0.49321 | i  |  5, 2, 1 |||
 11 |          | Input     |  1.00000 | -0.65178 | i  |  6, 2, 1 |||
 12 |          | Input     |  1.00000 |  0.71789 | i  |  7, 2, 1 |||
 13 |          | Input     |  1.00000 |  0.42100 | i  |  2, 3, 1 |||
 14 |          | Input     |  0.00000 |  0.02707 | i  |  3, 3, 1 |||
 15 |          | Input     |  0.00000 | -0.39201 | i  |  4, 3, 1 |||
 16 |          | Input     |  0.00000 | -0.97003 | i  |  5, 3, 1 |||
 17 |          | Input     |  0.00000 | -0.81719 | i  |  6, 3, 1 |||
 18 |          | Input     |  1.00000 | -0.27110 | i  |  7, 3, 1 |||
 19 |          | Input     |  1.00000 | -0.70537 | i  |  2, 4, 1 |||
 20 |          | Input     |  0.00000 | -0.66820 | i  |  3, 4, 1 |||
 21 |          | Input     |  0.00000 |  0.97705 | i  |  4, 4, 1 |||
 22 |          | Input     |  0.00000 | -0.10862 | i  |  5, 4, 1 |||
 23 |          | Input     |  0.00000 | -0.76183 | i  |  6, 4, 1 |||
 24 |          | Input     |  1.00000 | -0.99066 | i  |  7, 4, 1 |||
 25 |          | Input     |  1.00000 | -0.98218 | i  |  2, 5, 1 |||
 26 |          | Input     |  1.00000 | -0.24424 | i  |  3, 5, 1 |||
 27 |          | Input     |  1.00000 |  0.06333 | i  |  4, 5, 1 |||
 28 |          | Input     |  1.00000 |  0.14237 | i  |  5, 5, 1 |||
 29 |          | Input     |  1.00000 |  0.20353 | i  |  6, 5, 1 |||
 30 |          | Input     |  1.00000 |  0.21433 | i  |  7, 5, 1 |||
 31 |          | Input     |  0.00000 | -0.66753 | i  |  2, 6, 1 |||
 32 |          | Input     |  0.00000 |  0.32609 | i  |  3, 6, 1 |||
 33 |          | Input     |  0.00000 | -0.09842 | i  |  4, 6, 1 |||
 34 |          | Input     |  0.00000 | -0.29575 | i  |  5, 6, 1 |||
 35 |          | Input     |  0.00000 | -0.88592 | i  |  6, 6, 1 |||
 36 |          | Input     |  0.00000 |  0.21537 | i  |  7, 6, 1 |||
 37 |          | Ukryte    |  0.00779 | -0.11495 | h  | 12, 1, 1 |||
 38 |          | Ukryte    |  0.29239 | -0.45075 | h  | 12, 2, 1 |||
 39 |          | Ukryte    |  0.17556 | -0.17789 | h  | 12, 3, 1 |||
 40 |          | Ukryte    |  0.73018 | -0.65544 | h  | 12, 4, 1 |||
 41 |          | Ukryte    |  0.99317 |  1.15898 | h  | 12, 5, 1 |||
 42 |          | Ukryte    |  0.89692 | -1.09298 | h  | 12, 6, 1 |||
 43 |          | Prostokat |  0.76717 | -1.40975 | o  | 19, 4, 1 |||
 44 |          | Kolo      |  0.09969 | -0.08483 | o  | 19, 8, 1 |||
 45 |          | Strzalka  |  0.09825 |  0.18401 | o  | 17, 3, 1 |||
 46 |          | Gwiazda   |  0.03535 | -0.73832 | o  | 17, 5, 1 |||
 47 |          | Serce     |  0.09926 |  0.27848 | o  | 17, 7, 1 |||
 48 |          | Trojkat   |  0.05542 | -1.17987 | o  | 17, 9, 1 |||
 49 |          | noName    |  0.95815 | -0.21312 | h  | 12, 7, 1 |||
 50 |          | noName    |  0.93735 | -0.61398 | h  | 12, 8, 1 |||
 51 |          | noName    |  0.61216 |  0.58899 | h  | 12, 9, 1 |||
----|----------|-----------|----------|----------|----|----------|----------|----------|-------


connection definition section :

target | site | source:weight
-------|------|---------------------------------------------------------------------------------------------------------------------
    37 |      |  1: 0.64814,  2: 0.10733,  3:-0.04710,  4: 1.17602,  5: 0.52091,  6: 0.96758,  7: 0.95168,  8: 0.04165,  9:-1.06791,
                10:-0.73487, 11:-0.45851, 12: 0.83758, 13:-0.50429, 14: 0.32263, 15: 0.34926, 16: 0.53678, 17: 0.59218, 18: 0.40739,
                19:-0.49236, 20:-1.29638, 21:-0.44794, 22: 0.48902, 23:-1.55897, 24:-0.73499, 25:-0.71450, 26: 0.55294, 27:-1.59881,
                28:-1.60723, 29: 0.72542, 30:-0.33512, 31:-0.12957, 32: 0.37196, 33: 0.26477, 34: 0.35053, 35: 0.64912, 36: 0.29451
    38 |      |  1: 0.33924,  2:-0.34114,  3:-0.26812,  4: 0.86230,  5: 0.21081,  6:-0.90192,  7:-0.35466,  8:-0.55846,  9: 0.80405,
                10: 0.36528, 11: 0.27907, 12:-0.80032, 13:-0.48676, 14: 0.23731, 15: 0.04997, 16: 0.82621, 17: 0.75322, 18: 1.65330,
                19: 0.33701, 20:-0.26482, 21:-1.26824, 22:-0.43994, 23: 0.36060, 24:-1.34200, 25:-0.15324, 26:-0.09849, 27:-0.68064,
                28: 1.13769, 29:-0.82213, 30: 0.28724, 31: 0.38852, 32:-0.93305, 33:-0.58913, 34:-0.94512, 35: 0.39408, 36: 0.36911
    39 |      |  1: 0.81688,  2: 0.80838,  3: 0.18697,  4:-0.90080,  5:-0.47920,  6: 0.75129,  7:-0.23480,  8:-0.63183,  9: 0.10840,
                10: 0.58821, 11:-0.19677, 12:-0.57163, 13: 0.03403, 14: 0.62730, 15: 0.83084, 16: 0.74639, 17: 0.33018, 18:-0.92243,
                19:-0.12030, 20: 1.28041, 21:-0.81745, 22:-0.00131, 23: 0.86652, 24: 0.12155, 25:-0.97597, 26: 0.74482, 27: 1.11564,
                28: 0.20832, 29:-0.44871, 30:-0.18734, 31:-0.39284, 32: 0.82054, 33: 0.14477, 34: 0.34933, 35:-0.32964, 36: 0.82314
    40 |      |  1: 0.40036,  2: 0.71163,  3:-0.55275,  4: 0.96578,  5: 1.25596,  6: 0.07367,  7: 0.15868,  8: 0.11414,  9:-0.54346,
                10: 1.21493, 11:-0.07237, 12:-0.38573, 13:-0.05655, 14:-0.30224, 15: 0.56603, 16: 0.64104, 17: 0.46317, 18:-0.27487,
                19: 0.12786, 20:-0.80258, 21:-0.34932, 22: 0.54644, 23:-0.64551, 24: 0.90646, 25:-0.27096, 26:-0.25450, 27:-0.71481,
                28: 0.23217, 29: 0.54073, 30: 0.92925, 31: 0.44200, 32: 0.54993, 33:-1.06352, 34:-1.19823, 35:-0.94126, 36:-0.63646
    41 |      |  1: 0.66012,  2:-1.01440,  3:-0.60035,  4: 0.05428,  5:-1.40705,  6:-0.52265,  7:-0.13850,  8: 0.54421,  9: 0.80003,
                10: 0.43846, 11:-0.61845, 12: 0.12084, 13:-0.26101, 14: 0.23934, 15:-0.42190, 16: 0.07402, 17:-0.56786, 18: 0.68485,
                19: 0.24571, 20: 0.16086, 21:-0.16278, 22: 0.03364, 23: 0.71548, 24: 0.98111, 25: 0.80208, 26:-0.51135, 27: 0.12903,
                28:-0.49680, 29: 0.93775, 30: 0.16228, 31: 1.23477, 32:-0.91968, 33: 0.54618, 34:-0.58759, 35:-0.23924, 36: 1.10177
    42 |      |  1: 0.82223,  2:-0.07140,  3:-1.21014,  4:-0.61642,  5: 0.17000,  6:-0.31817,  7: 0.79412,  8: 0.71883,  9:-0.44577,
                10:-0.37663, 11: 1.03942, 12: 1.05233, 13: 0.43264, 14: 0.36199, 15: 0.27425, 16: 0.53745, 17:-0.07039, 18:-0.19346,
                19:-0.58691, 20: 0.28345, 21:-0.57681, 22:-0.17584, 23:-0.32442, 24:-0.71489, 25: 0.74743, 26: 0.67266, 27: 0.24599,
                28: 0.10753, 29:-0.18052, 30:-0.05635, 31: 0.35818, 32: 0.88670, 33: 0.27193, 34: 0.42147, 35: 1.27166, 36:-0.82509
    43 |      | 51: 0.72224, 50: 1.25816, 49: 2.71881, 37:-0.19511, 38:-0.68702, 39:-0.78426, 40: 0.65932, 41:-2.60021, 42: 0.91061
    44 |      | 51:-0.17229, 50:-2.00630, 49: 2.01485, 37: 0.40273, 38: 1.38171, 39:-1.70236, 40:-0.86296, 41: 0.35798, 42:-2.11162
    45 |      | 51: 2.35520, 50: 0.00141, 49:-1.34929, 37:-1.52961, 38:-2.57583, 39: 0.27816, 40: 0.54491, 41:-0.66567, 42:-1.75222
    46 |      | 51:-1.25016, 50: 0.81884, 49:-0.99284, 37: 1.01094, 38: 1.36425, 39:-0.50406, 40: 1.03174, 41:-1.27885, 42:-1.58400
    47 |      | 51:-2.97340, 50:-0.60166, 49: 0.08517, 37:-2.00181, 38: 0.68769, 39: 1.33654, 40:-0.01841, 41:-0.86041, 42: 0.29708
    48 |      | 51:-0.93334, 50: 1.76541, 49:-2.16882, 37: 0.82831, 38:-1.66511, 39:-0.36423, 40:-1.14230, 41:-0.32837, 42: 1.16316
    49 |      | 36:-0.57018, 35: 0.33342, 34:-0.27517, 33:-0.67080, 32:-0.25254, 31:-1.32314, 30: 0.64244, 29:-0.66912, 28: 0.80985,
                27: 1.05829, 26:-0.11019, 25: 0.82215, 24:-0.51869, 23: 0.13363, 22:-0.59457, 21:-1.17066, 20:-0.13412, 19: 0.72146,
                18: 0.69926, 17:-0.25576, 16:-0.89803, 15:-1.48261, 14: 1.14568, 13: 0.82999, 12: 0.45066, 11:-0.40189, 10:-0.30039,
                 9:-0.59040,  8: 0.30986,  7:-0.40927,  6: 0.57139,  5: 1.20468,  4: 0.39092,  3: 0.63333,  2: 1.18399,  1:-0.99260
    50 |      | 36: 1.01818, 35: 0.71847, 34:-0.72518, 33:-1.05031, 32:-0.17798, 31: 0.85057, 30: 0.36604, 29:-0.15681, 28:-0.11434,
                27: 0.48904, 26: 0.84992, 25: 1.30602, 24: 0.16744, 23:-0.05719, 22: 0.97381, 21: 1.08156, 20:-0.88438, 19: 0.27752,
                18: 0.06291, 17:-0.76068, 16:-0.34390, 15: 0.92535, 14:-0.82318, 13:-0.03633, 12: 0.83077, 11:-0.29469, 10: 0.25318,
                 9:-0.16812,  8:-0.42658,  7:-0.08647,  6: 0.85425,  5:-0.65266,  4:-0.77054,  3:-0.00867,  2: 0.86838,  1: 0.82564
    51 |      | 36:-0.20830, 35:-0.31145, 34: 0.39789, 33:-0.38216, 32: 0.69346, 31:-0.97987, 30:-0.19561, 29: 0.03808, 28: 0.76963,
                27:-0.62146, 26:-0.89774, 25: 0.35868, 24: 0.65591, 23:-0.58444, 22: 0.66470, 21: 1.80777, 20: 0.28110, 19:-0.48990,
                18:-1.57341, 17: 0.75336, 16:-1.46393, 15:-1.62919, 14:-0.91418, 13:-0.64553, 12: 1.13469, 11:-1.01373, 10: 0.30732,
                 9: 1.29402,  8: 0.36869,  7: 0.37778,  6: 0.68074,  5: 1.14099,  4: 0.81417,  3: 0.46225,  2:-0.23741,  1: 0.05177
-------|------|---------------------------------------------------------------------------------------------------------------------


layer definition section :

layer | unitNo.
------|----------------------------------------------------------------------------------------------------------------------------
    2 | 37, 38, 39, 40, 41, 42, 49, 50, 51
    3 | 43, 44, 45, 46, 47, 48
------|----------------------------------------------------------------------------------------------------------------------------
